<?xml version="1.0"?>
<opencv_storage>
<cascade>
  <stageType>BOOST</stageType>
  <featureType>HAAR</featureType>
  <height>20</height>
  <width>20</width>
  <stageParams>
    <boostType>GAB</boostType>
    <minHitRate>9.9500000476837158e-01</minHitRate>
    <maxFalseAlarm>5.0000000000000000e-01</maxFalseAlarm>
    <weightTrimRate>9.4999999999999996e-01</weightTrimRate>
    <maxDepth>1</maxDepth>
    <maxWeakCount>100</maxWeakCount></stageParams>
  <featureParams>
    <maxCatCount>0</maxCatCount>
    <featSize>1</featSize>
    <mode>BASIC</mode></featureParams>
  <stageNum>10</stageNum>
  <stages>
    <!-- stage 0 -->
    <_>
      <maxWeakCount>5</maxWeakCount>
      <stageThreshold>-1.3211699724197388e+00</stageThreshold>
      <weakClassifiers>
        <_>
          <internalNodes>
            0 -1 20 3.9373710751533508e-02</internalNodes>
          <leafValues>
            -8.4172660112380981e-01 7.9146921634674072e-01</leafValues></_>
        <_>
          <internalNodes>
            0 -1 4 1.3198600709438324e-01</internalNodes>
          <leafValues>
            -5.9482330083847046e-01 7.3121505975723267e-01</leafValues></_>
        <_>
          <internalNodes>
            0 -1 63 -2.5384258478879929e-03</internalNodes>
          <leafValues>
            4.1770038008689880e-01 -8.5132557153701782e-01</leafValues></_>
        <_>
          <internalNodes>
            0 -1 8 -4.1080601513385773e-02</internalNodes>
          <leafValues>
            4.8108628392219543e-01 -6.6505157947540283e-01</leafValues></_>
        <_>
          <internalNodes>
            0 -1 51 2.8178142383694649e-04</internalNodes>
          <leafValues>
            -7.5554788112640381e-01 3.6273106932640076e-01</leafValues></_></weakClassifiers></_>
    <!-- stage 1 -->
    <_>
      <maxWeakCount>4</maxWeakCount>
      <stageThreshold>-4.7697505354881287e-01</stageThreshold>
      <weakClassifiers>
        <_>
          <internalNodes>
            0 -1 20 5.8407388627529144e-02</internalNodes>
          <leafValues>
            -6.8627452850341797e-01 7.2587186098098755e-01</leafValues></_>
        <_>
          <internalNodes>
            0 -1 0 1.0135339945554733e-01</internalNodes>
          <leafValues>
            -4.2983925342559814e-01 7.0970219373703003e-01</leafValues></_>
        <_>
          <internalNodes>
            0 -1 41 6.0589183703996241e-05</internalNodes>
          <leafValues>
            -7.8814363479614258e-01 3.8426312804222107e-01</leafValues></_>
        <_>
          <internalNodes>
            0 -1 46 3.7749798502773046e-04</internalNodes>
          <leafValues>
            2.8774085640907288e-01 -9.6180975437164307e-01</leafValues></_></weakClassifiers></_>
    <!-- stage 2 -->
    <_>
      <maxWeakCount>7</maxWeakCount>
      <stageThreshold>-1.0653182268142700e+00</stageThreshold>
      <weakClassifiers>
        <_>
          <internalNodes>
            0 -1 23 5.8207295835018158e-02</internalNodes>
          <leafValues>
            -6.4221364259719849e-01 6.0393047332763672e-01</leafValues></_>
        <_>
          <internalNodes>
            0 -1 43 1.3018075842410326e-03</internalNodes>
          <leafValues>
            3.4336704015731812e-01 -8.9380365610122681e-01</leafValues></_>
        <_>
          <internalNodes>
            0 -1 1 8.4050953388214111e-02</internalNodes>
          <leafValues>
            -5.0029861927032471e-01 4.5685321092605591e-01</leafValues></_>
        <_>
          <internalNodes>
            0 -1 39 -9.3151826877146959e-04</internalNodes>
          <leafValues>
            -9.0845459699630737e-01 2.1360650658607483e-01</leafValues></_>
        <_>
          <internalNodes>
            0 -1 48 2.2511690622195601e-04</internalNodes>
          <leafValues>
            -8.5014343261718750e-01 2.6194271445274353e-01</leafValues></_>
        <_>
          <internalNodes>
            0 -1 47 2.2154692560434341e-03</internalNodes>
          <leafValues>
            1.9805328547954559e-01 -7.5006300210952759e-01</leafValues></_>
        <_>
          <internalNodes>
            0 -1 65 1.7709960229694843e-04</internalNodes>
          <leafValues>
            1.7231068015098572e-01 -9.2322838306427002e-01</leafValues></_></weakClassifiers></_>
    <!-- stage 3 -->
    <_>
      <maxWeakCount>7</maxWeakCount>
      <stageThreshold>-1.2308791875839233e+00</stageThreshold>
      <weakClassifiers>
        <_>
          <internalNodes>
            0 -1 20 8.2766681909561157e-02</internalNodes>
          <leafValues>
            -4.0866288542747498e-01 7.0712912082672119e-01</leafValues></_>
        <_>
          <internalNodes>
            0 -1 45 2.8879316523671150e-03</internalNodes>
          <leafValues>
            3.1369802355766296e-01 -9.3418151140213013e-01</leafValues></_>
        <_>
          <internalNodes>
            0 -1 10 2.3406410589814186e-02</internalNodes>
          <leafValues>
            -3.9012113213539124e-01 5.7170838117599487e-01</leafValues></_>
        <_>
          <internalNodes>
            0 -1 54 2.0913040498271585e-04</internalNodes>
          <leafValues>
            -7.3694169521331787e-01 3.3097898960113525e-01</leafValues></_>
        <_>
          <internalNodes>
            0 -1 21 1.9119020551443100e-02</internalNodes>
          <leafValues>
            -3.9030790328979492e-01 6.3088548183441162e-01</leafValues></_>
        <_>
          <internalNodes>
            0 -1 27 1.2276084721088409e-01</internalNodes>
          <leafValues>
            -3.1236952543258667e-01 6.3190013170242310e-01</leafValues></_>
        <_>
          <internalNodes>
            0 -1 7 3.6423150449991226e-02</internalNodes>
          <leafValues>
            -2.5044375658035278e-01 8.4426432847976685e-01</leafValues></_></weakClassifiers></_>
    <!-- stage 4 -->
    <_>
      <maxWeakCount>5</maxWeakCount>
      <stageThreshold>-4.9924924969673157e-01</stageThreshold>
      <weakClassifiers>
        <_>
          <internalNodes>
            0 -1 22 1.3477796688675880e-02</internalNodes>
          <leafValues>
            -5.8900147676467896e-01 5.0177431106567383e-01</leafValues></_>
        <_>
          <internalNodes>
            0 -1 66 -1.0755455150501803e-04</internalNodes>
          <leafValues>
            2.8192311525344849e-01 -9.8435157537460327e-01</leafValues></_>
        <_>
          <internalNodes>
            0 -1 5 1.1087670922279358e-01</internalNodes>
          <leafValues>
            -6.2512952089309692e-01 3.9096051454544067e-01</leafValues></_>
        <_>
          <internalNodes>
            0 -1 61 -5.9166429564356804e-03</internalNodes>
          <leafValues>
            -7.9260092973709106e-01 2.3729489743709564e-01</leafValues></_>
        <_>
          <internalNodes>
            0 -1 40 4.5070564374327660e-04</internalNodes>
          <leafValues>
            -8.2042634487152100e-01 2.3135001957416534e-01</leafValues></_></weakClassifiers></_>
    <!-- stage 5 -->
    <_>
      <maxWeakCount>8</maxWeakCount>
      <stageThreshold>-1.0863445997238159e+00</stageThreshold>
      <weakClassifiers>
        <_>
          <internalNodes>
            0 -1 15 7.5681261718273163e-02</internalNodes>
          <leafValues>
            -6.0515022277832031e-01 5.1605993509292603e-01</leafValues></_>
        <_>
          <internalNodes>
            0 -1 68 1.7284632485825568e-04</internalNodes>
          <leafValues>
            -7.3796159029006958e-01 2.8233423829078674e-01</leafValues></_>
        <_>
          <internalNodes>
            0 -1 68 2.0173913799226284e-03</internalNodes>
          <leafValues>
            2.5205197930335999e-01 -9.2174828052520752e-01</leafValues></_>
        <_>
          <internalNodes>
            0 -1 31 -3.9315479807555676e-03</internalNodes>
          <leafValues>
            2.1668241918087006e-01 -7.5789988040924072e-01</leafValues></_>
        <_>
          <internalNodes>
            0 -1 55 4.2035462683998048e-05</internalNodes>
          <leafValues>
            -8.0321574211120605e-01 1.5706662833690643e-01</leafValues></_>
        <_>
          <internalNodes>
            0 -1 42 -2.4619130999781191e-04</internalNodes>
          <leafValues>
            -5.5485886335372925e-01 2.6954191923141479e-01</leafValues></_>
        <_>
          <internalNodes>
            0 -1 18 -3.6544953472912312e-03</internalNodes>
          <leafValues>
            4.5805731415748596e-01 -3.5633099079132080e-01</leafValues></_>
        <_>
          <internalNodes>
            0 -1 12 3.8457978516817093e-02</internalNodes>
          <leafValues>
            -2.7223223447799683e-01 5.7709580659866333e-01</leafValues></_></weakClassifiers></_>
    <!-- stage 6 -->
    <_>
      <maxWeakCount>8</maxWeakCount>
      <stageThreshold>-1.3970741033554077e+00</stageThreshold>
      <weakClassifiers>
        <_>
          <internalNodes>
            0 -1 56 5.0654089136514813e-05</internalNodes>
          <leafValues>
            -6.9230771064758301e-01 3.9975094795227051e-01</leafValues></_>
        <_>
          <internalNodes>
            0 -1 29 3.5560645163059235e-02</internalNodes>
          <leafValues>
            -4.7052383422851562e-01 4.9282109737396240e-01</leafValues></_>
        <_>
          <internalNodes>
            0 -1 62 -9.5492682885378599e-04</internalNodes>
          <leafValues>
            -9.1969442367553711e-01 1.9089229404926300e-01</leafValues></_>
        <_>
          <internalNodes>
            0 -1 58 1.3871709816157818e-03</internalNodes>
          <leafValues>
            1.8534183502197266e-01 -8.6839818954467773e-01</leafValues></_>
        <_>
          <internalNodes>
            0 -1 25 2.7891196310520172e-02</internalNodes>
          <leafValues>
            -2.9468148946762085e-01 6.3823211193084717e-01</leafValues></_>
        <_>
          <internalNodes>
            0 -1 36 -8.2487575127743185e-05</internalNodes>
          <leafValues>
            -8.2581913471221924e-01 2.1883204579353333e-01</leafValues></_>
        <_>
          <internalNodes>
            0 -1 16 7.4055612087249756e-02</internalNodes>
          <leafValues>
            -3.5442250967025757e-01 5.7057720422744751e-01</leafValues></_>
        <_>
          <internalNodes>
            0 -1 6 6.2136642634868622e-02</internalNodes>
          <leafValues>
            -2.2761218249797821e-01 6.9219708442687988e-01</leafValues></_></weakClassifiers></_>
    <!-- stage 7 -->
    <_>
      <maxWeakCount>11</maxWeakCount>
      <stageThreshold>-1.1089197397232056e+00</stageThreshold>
      <weakClassifiers>
        <_>
          <internalNodes>
            0 -1 26 3.0271667055785656e-03</internalNodes>
          <leafValues>
            -4.4931164383888245e-01 5.0653344392776489e-01</leafValues></_>
        <_>
          <internalNodes>
            0 -1 67 3.9824971463531256e-04</internalNodes>
          <leafValues>
            3.0839961767196655e-01 -6.9040030241012573e-01</leafValues></_>
        <_>
          <internalNodes>
            0 -1 57 1.4351170975714922e-03</internalNodes>
          <leafValues>
            -6.8859356641769409e-01 2.3802436888217926e-01</leafValues></_>
        <_>
          <internalNodes>
            0 -1 44 1.6273609362542629e-03</internalNodes>
          <leafValues>
            1.6790182888507843e-01 -9.1627883911132812e-01</leafValues></_>
        <_>
          <internalNodes>
            0 -1 11 1.2563563883304596e-02</internalNodes>
          <leafValues>
            -3.6629343032836914e-01 4.8558452725410461e-01</leafValues></_>
        <_>
          <internalNodes>
            0 -1 37 2.6589348912239075e-02</internalNodes>
          <leafValues>
            -4.1189220547676086e-01 3.8543385267257690e-01</leafValues></_>
        <_>
          <internalNodes>
            0 -1 2 -1.9146213307976723e-02</internalNodes>
          <leafValues>
            5.4082608222961426e-01 -3.2825860381126404e-01</leafValues></_>
        <_>
          <internalNodes>
            0 -1 24 -5.1653519272804260e-02</internalNodes>
          <leafValues>
            3.0011069774627686e-01 -5.6995075941085815e-01</leafValues></_>
        <_>
          <internalNodes>
            0 -1 59 -5.0145410932600498e-04</internalNodes>
          <leafValues>
            -7.4147039651870728e-01 1.6281358897686005e-01</leafValues></_>
        <_>
          <internalNodes>
            0 -1 19 -8.2662440836429596e-03</internalNodes>
          <leafValues>
            6.1599463224411011e-01 -2.5350436568260193e-01</leafValues></_>
        <_>
          <internalNodes>
            0 -1 28 -5.2911643870174885e-03</internalNodes>
          <leafValues>
            5.7429629564285278e-01 -2.3851183056831360e-01</leafValues></_></weakClassifiers></_>
    <!-- stage 8 -->
    <_>
      <maxWeakCount>11</maxWeakCount>
      <stageThreshold>-1.4116498231887817e+00</stageThreshold>
      <weakClassifiers>
        <_>
          <internalNodes>
            0 -1 9 -1.8415242433547974e-02</internalNodes>
          <leafValues>
            3.8938054442405701e-01 -6.1003863811492920e-01</leafValues></_>
        <_>
          <internalNodes>
            0 -1 70 1.0629779717419297e-04</internalNodes>
          <leafValues>
            -7.6144278049468994e-01 2.4446730315685272e-01</leafValues></_>
        <_>
          <internalNodes>
            0 -1 60 -1.1407921090722084e-02</internalNodes>
          <leafValues>
            -7.7773076295852661e-01 1.9420082867145538e-01</leafValues></_>
        <_>
          <internalNodes>
            0 -1 71 -1.2554251588881016e-03</internalNodes>
          <leafValues>
            2.0404897630214691e-01 -7.1313667297363281e-01</leafValues></_>
        <_>
          <internalNodes>
            0 -1 38 -2.6541231200098991e-03</internalNodes>
          <leafValues>
            5.8234423398971558e-01 -3.0542251467704773e-01</leafValues></_>
        <_>
          <internalNodes>
            0 -1 50 1.6359161236323416e-04</internalNodes>
          <leafValues>
            -7.8130060434341431e-01 1.8626926839351654e-01</leafValues></_>
        <_>
          <internalNodes>
            0 -1 32 -2.5167751591652632e-03</internalNodes>
          <leafValues>
            2.0399206876754761e-01 -6.6479504108428955e-01</leafValues></_>
        <_>
          <internalNodes>
            0 -1 34 -1.8655558233149350e-04</internalNodes>
          <leafValues>
            -6.9341140985488892e-01 1.8421144783496857e-01</leafValues></_>
        <_>
          <internalNodes>
            0 -1 3 9.5115043222904205e-02</internalNodes>
          <leafValues>
            -5.1069366931915283e-01 2.7303874492645264e-01</leafValues></_>
        <_>
          <internalNodes>
            0 -1 14 -1.1100927367806435e-02</internalNodes>
          <leafValues>
            3.4277877211570740e-01 -4.1052448749542236e-01</leafValues></_>
        <_>
          <internalNodes>
            0 -1 53 8.0611882731318474e-04</internalNodes>
          <leafValues>
            1.6049791872501373e-01 -7.3459327220916748e-01</leafValues></_></weakClassifiers></_>
    <!-- stage 9 -->
    <_>
      <maxWeakCount>10</maxWeakCount>
      <stageThreshold>-7.1226787567138672e-01</stageThreshold>
      <weakClassifiers>
        <_>
          <internalNodes>
            0 -1 69 3.7043142947368324e-04</internalNodes>
          <leafValues>
            -6.3064831495285034e-01 3.9032053947448730e-01</leafValues></_>
        <_>
          <internalNodes>
            0 -1 30 2.1947149187326431e-02</internalNodes>
          <leafValues>
            -3.8045424222946167e-01 5.1792186498641968e-01</leafValues></_>
        <_>
          <internalNodes>
            0 -1 33 -1.4637533240602352e-05</internalNodes>
          <leafValues>
            -8.0321425199508667e-01 1.9508348405361176e-01</leafValues></_>
        <_>
          <internalNodes>
            0 -1 35 8.8849822059273720e-03</internalNodes>
          <leafValues>
            -3.6926385760307312e-01 4.3591919541358948e-01</leafValues></_>
        <_>
          <internalNodes>
            0 -1 52 1.1148159392178059e-03</internalNodes>
          <leafValues>
            1.5718434751033783e-01 -9.1837066411972046e-01</leafValues></_>
        <_>
          <internalNodes>
            0 -1 12 5.4988816380500793e-02</internalNodes>
          <leafValues>
            -2.5815120339393616e-01 6.0855132341384888e-01</leafValues></_>
        <_>
          <internalNodes>
            0 -1 49 5.2512105321511626e-04</internalNodes>
          <leafValues>
            -7.9850733280181885e-01 1.8480141460895538e-01</leafValues></_>
        <_>
          <internalNodes>
            0 -1 13 9.6242807805538177e-02</internalNodes>
          <leafValues>
            -2.2574155032634735e-01 6.6626703739166260e-01</leafValues></_>
        <_>
          <internalNodes>
            0 -1 64 7.5490801827982068e-04</internalNodes>
          <leafValues>
            1.4474113285541534e-01 -9.5621764659881592e-01</leafValues></_>
        <_>
          <internalNodes>
            0 -1 17 -1.3749748468399048e-02</internalNodes>
          <leafValues>
            5.8305960893630981e-01 -2.5006949901580811e-01</leafValues></_></weakClassifiers></_></stages>
  <features>
    <_>
      <rects>
        <_>
          1 3 18 3 -1.</_>
        <_>
          7 3 6 3 3.</_></rects>
      <tilted>0</tilted></_>
    <_>
      <rects>
        <_>
          1 3 12 5 -1.</_>
        <_>
          7 3 6 5 2.</_></rects>
      <tilted>0</tilted></_>
    <_>
      <rects>
        <_>
          1 6 6 5 -1.</_>
        <_>
          3 6 2 5 3.</_></rects>
      <tilted>0</tilted></_>
    <_>
      <rects>
        <_>
          2 0 18 13 -1.</_>
        <_>
          8 0 6 13 3.</_></rects>
      <tilted>0</tilted></_>
    <_>
      <rects>
        <_>
          2 2 18 6 -1.</_>
        <_>
          8 2 6 6 3.</_></rects>
      <tilted>0</tilted></_>
    <_>
      <rects>
        <_>
          2 3 18 4 -1.</_>
        <_>
          8 3 6 4 3.</_></rects>
      <tilted>0</tilted></_>
    <_>
      <rects>
        <_>
          3 2 9 8 -1.</_>
        <_>
          6 2 3 8 3.</_></rects>
      <tilted>0</tilted></_>
    <_>
      <rects>
        <_>
          3 5 9 2 -1.</_>
        <_>
          6 5 3 2 3.</_></rects>
      <tilted>0</tilted></_>
    <_>
      <rects>
        <_>
          3 5 11 6 -1.</_>
        <_>
          3 8 11 3 2.</_></rects>
      <tilted>0</tilted></_>
    <_>
      <rects>
        <_>
          3 5 12 4 -1.</_>
        <_>
          3 7 12 2 2.</_></rects>
      <tilted>0</tilted></_>
    <_>
      <rects>
        <_>
          4 3 4 6 -1.</_>
        <_>
          6 3 2 6 2.</_></rects>
      <tilted>0</tilted></_>
    <_>
      <rects>
        <_>
          4 3 8 1 -1.</_>
        <_>
          8 3 4 1 2.</_></rects>
      <tilted>0</tilted></_>
    <_>
      <rects>
        <_>
          4 4 9 3 -1.</_>
        <_>
          7 4 3 3 3.</_></rects>
      <tilted>0</tilted></_>
    <_>
      <rects>
        <_>
          6 2 9 5 -1.</_>
        <_>
          9 2 3 5 3.</_></rects>
      <tilted>0</tilted></_>
    <_>
      <rects>
        <_>
          6 7 9 3 -1.</_>
        <_>
          9 7 3 3 3.</_></rects>
      <tilted>0</tilted></_>
    <_>
      <rects>
        <_>
          7 1 10 9 -1.</_>
        <_>
          7 4 10 3 3.</_></rects>
      <tilted>0</tilted></_>
    <_>
      <rects>
        <_>
          7 2 9 5 -1.</_>
        <_>
          10 2 3 5 3.</_></rects>
      <tilted>0</tilted></_>
    <_>
      <rects>
        <_>
          7 3 6 6 -1.</_>
        <_>
          9 3 2 6 3.</_></rects>
      <tilted>0</tilted></_>
    <_>
      <rects>
        <_>
          7 17 6 2 -1.</_>
        <_>
          7 18 6 1 2.</_></rects>
      <tilted>0</tilted></_>
    <_>
      <rects>
        <_>
          7 18 8 2 -1.</_>
        <_>
          7 19 8 1 2.</_></rects>
      <tilted>0</tilted></_>
    <_>
      <rects>
        <_>
          8 1 5 9 -1.</_>
        <_>
          8 4 5 3 3.</_></rects>
      <tilted>0</tilted></_>
    <_>
      <rects>
        <_>
          8 3 6 3 -1.</_>
        <_>
          10 3 2 3 3.</_></rects>
      <tilted>0</tilted></_>
    <_>
      <rects>
        <_>
          8 3 3 6 -1.</_>
        <_>
          8 5 3 2 3.</_></rects>
      <tilted>0</tilted></_>
    <_>
      <rects>
        <_>
          8 3 10 10 -1.</_>
        <_>
          8 3 5 5 2.</_>
        <_>
          13 8 5 5 2.</_></rects>
      <tilted>0</tilted></_>
    <_>
      <rects>
        <_>
          8 4 10 8 -1.</_>
        <_>
          8 8 10 4 2.</_></rects>
      <tilted>0</tilted></_>
    <_>
      <rects>
        <_>
          8 5 6 6 -1.</_>
        <_>
          8 5 3 3 2.</_>
        <_>
          11 8 3 3 2.</_></rects>
      <tilted>0</tilted></_>
    <_>
      <rects>
        <_>
          8 5 4 3 -1.</_>
        <_>
          8 6 4 1 3.</_></rects>
      <tilted>0</tilted></_>
    <_>
      <rects>
        <_>
          8 6 12 12 -1.</_>
        <_>
          12 6 4 12 3.</_></rects>
      <tilted>0</tilted></_>
    <_>
      <rects>
        <_>
          8 17 5 3 -1.</_>
        <_>
          8 18 5 1 3.</_></rects>
      <tilted>0</tilted></_>
    <_>
      <rects>
        <_>
          9 0 2 9 -1.</_>
        <_>
          9 3 2 3 3.</_></rects>
      <tilted>0</tilted></_>
    <_>
      <rects>
        <_>
          9 0 4 4 -1.</_>
        <_>
          9 2 4 2 2.</_></rects>
      <tilted>0</tilted></_>
    <_>
      <rects>
        <_>
          9 5 8 2 -1.</_>
        <_>
          13 5 4 2 2.</_></rects>
      <tilted>0</tilted></_>
    <_>
      <rects>
        <_>
          9 5 8 9 -1.</_>
        <_>
          9 8 8 3 3.</_></rects>
      <tilted>0</tilted></_>
    <_>
      <rects>
        <_>
          10 3 1 2 -1.</_>
        <_>
          10 4 1 1 2.</_></rects>
      <tilted>0</tilted></_>
    <_>
      <rects>
        <_>
          10 4 1 2 -1.</_>
        <_>
          10 5 1 1 2.</_></rects>
      <tilted>0</tilted></_>
    <_>
      <rects>
        <_>
          10 9 6 8 -1.</_>
        <_>
          12 9 2 8 3.</_></rects>
      <tilted>0</tilted></_>
    <_>
      <rects>
        <_>
          11 3 1 2 -1.</_>
        <_>
          11 4 1 1 2.</_></rects>
      <tilted>0</tilted></_>
    <_>
      <rects>
        <_>
          11 10 9 6 -1.</_>
        <_>
          14 10 3 6 3.</_></rects>
      <tilted>0</tilted></_>
    <_>
      <rects>
        <_>
          11 18 2 2 -1.</_>
        <_>
          11 19 2 1 2.</_></rects>
      <tilted>0</tilted></_>
    <_>
      <rects>
        <_>
          12 8 3 3 -1.</_>
        <_>
          13 8 1 3 3.</_></rects>
      <tilted>0</tilted></_>
    <_>
      <rects>
        <_>
          12 9 2 3 -1.</_>
        <_>
          13 9 1 3 2.</_></rects>
      <tilted>0</tilted></_>
    <_>
      <rects>
        <_>
          12 11 2 1 -1.</_>
        <_>
          13 11 1 1 2.</_></rects>
      <tilted>0</tilted></_>
    <_>
      <rects>
        <_>
          12 12 3 2 -1.</_>
        <_>
          13 12 1 2 3.</_></rects>
      <tilted>0</tilted></_>
    <_>
      <rects>
        <_>
          13 6 1 6 -1.</_>
        <_>
          13 8 1 2 3.</_></rects>
      <tilted>0</tilted></_>
    <_>
      <rects>
        <_>
          13 7 2 3 -1.</_>
        <_>
          14 7 1 3 2.</_></rects>
      <tilted>0</tilted></_>
    <_>
      <rects>
        <_>
          13 7 2 6 -1.</_>
        <_>
          13 9 2 2 3.</_></rects>
      <tilted>0</tilted></_>
    <_>
      <rects>
        <_>
          13 8 1 4 -1.</_>
        <_>
          13 10 1 2 2.</_></rects>
      <tilted>0</tilted></_>
    <_>
      <rects>
        <_>
          13 8 2 4 -1.</_>
        <_>
          14 8 1 4 2.</_></rects>
      <tilted>0</tilted></_>
    <_>
      <rects>
        <_>
          13 9 2 3 -1.</_>
        <_>
          14 9 1 3 2.</_></rects>
      <tilted>0</tilted></_>
    <_>
      <rects>
        <_>
          13 9 2 4 -1.</_>
        <_>
          14 9 1 4 2.</_></rects>
      <tilted>0</tilted></_>
    <_>
      <rects>
        <_>
          13 10 2 2 -1.</_>
        <_>
          14 10 1 2 2.</_></rects>
      <tilted>0</tilted></_>
    <_>
      <rects>
        <_>
          13 10 2 4 -1.</_>
        <_>
          14 10 1 4 2.</_></rects>
      <tilted>0</tilted></_>
    <_>
      <rects>
        <_>
          13 10 2 3 -1.</_>
        <_>
          13 11 2 1 3.</_></rects>
      <tilted>0</tilted></_>
    <_>
      <rects>
        <_>
          13 11 2 1 -1.</_>
        <_>
          14 11 1 1 2.</_></rects>
      <tilted>0</tilted></_>
    <_>
      <rects>
        <_>
          13 11 2 2 -1.</_>
        <_>
          14 11 1 2 2.</_></rects>
      <tilted>0</tilted></_>
    <_>
      <rects>
        <_>
          13 12 2 1 -1.</_>
        <_>
          14 12 1 1 2.</_></rects>
      <tilted>0</tilted></_>
    <_>
      <rects>
        <_>
          13 13 2 1 -1.</_>
        <_>
          14 13 1 1 2.</_></rects>
      <tilted>0</tilted></_>
    <_>
      <rects>
        <_>
          14 3 2 9 -1.</_>
        <_>
          14 6 2 3 3.</_></rects>
      <tilted>0</tilted></_>
    <_>
      <rects>
        <_>
          14 6 1 6 -1.</_>
        <_>
          14 8 1 2 3.</_></rects>
      <tilted>0</tilted></_>
    <_>
      <rects>
        <_>
          14 7 1 3 -1.</_>
        <_>
          14 8 1 1 3.</_></rects>
      <tilted>0</tilted></_>
    <_>
      <rects>
        <_>
          14 7 2 8 -1.</_>
        <_>
          14 11 2 4 2.</_></rects>
      <tilted>0</tilted></_>
    <_>
      <rects>
        <_>
          14 8 1 8 -1.</_>
        <_>
          14 12 1 4 2.</_></rects>
      <tilted>0</tilted></_>
    <_>
      <rects>
        <_>
          14 8 2 3 -1.</_>
        <_>
          14 9 2 1 3.</_></rects>
      <tilted>0</tilted></_>
    <_>
      <rects>
        <_>
          14 8 2 8 -1.</_>
        <_>
          14 12 2 4 2.</_></rects>
      <tilted>0</tilted></_>
    <_>
      <rects>
        <_>
          14 9 2 1 -1.</_>
        <_>
          15 9 1 1 2.</_></rects>
      <tilted>0</tilted></_>
    <_>
      <rects>
        <_>
          14 9 1 4 -1.</_>
        <_>
          14 11 1 2 2.</_></rects>
      <tilted>0</tilted></_>
    <_>
      <rects>
        <_>
          14 9 1 6 -1.</_>
        <_>
          14 12 1 3 2.</_></rects>
      <tilted>0</tilted></_>
    <_>
      <rects>
        <_>
          14 9 2 8 -1.</_>
        <_>
          14 9 1 4 2.</_>
        <_>
          15 13 1 4 2.</_></rects>
      <tilted>0</tilted></_>
    <_>
      <rects>
        <_>
          14 10 2 3 -1.</_>
        <_>
          15 10 1 3 2.</_></rects>
      <tilted>0</tilted></_>
    <_>
      <rects>
        <_>
          14 10 2 4 -1.</_>
        <_>
          15 10 1 4 2.</_></rects>
      <tilted>0</tilted></_>
    <_>
      <rects>
        <_>
          15 4 1 9 -1.</_>
        <_>
          15 7 1 3 3.</_></rects>
      <tilted>0</tilted></_>
    <_>
      <rects>
        <_>
          15 8 1 8 -1.</_>
        <_>
          15 12 1 4 2.</_></rects>
      <tilted>0</tilted></_></features></cascade>
</opencv_storage>
