<?xml version="1.0"?>
<opencv_storage>
<stage4>
  <maxWeakCount>5</maxWeakCount>
  <stageThreshold>-4.9924924969673157e-01</stageThreshold>
  <weakClassifiers>
    <_>
      <internalNodes>
        0 -1 51374 1.3477796688675880e-02</internalNodes>
      <leafValues>
        -5.8900147676467896e-01 5.0177431106567383e-01</leafValues></_>
    <_>
      <internalNodes>
        0 -1 72828 -1.0755455150501803e-04</internalNodes>
      <leafValues>
        2.8192311525344849e-01 -9.8435157537460327e-01</leafValues></_>
    <_>
      <internalNodes>
        0 -1 16994 1.1087670922279358e-01</internalNodes>
      <leafValues>
        -6.2512952089309692e-01 3.9096051454544067e-01</leafValues></_>
    <_>
      <internalNodes>
        0 -1 72695 -5.9166429564356804e-03</internalNodes>
      <leafValues>
        -7.9260092973709106e-01 2.3729489743709564e-01</leafValues></_>
    <_>
      <internalNodes>
        0 -1 67816 4.5070564374327660e-04</internalNodes>
      <leafValues>
        -8.2042634487152100e-01 2.3135001957416534e-01</leafValues></_></weakClassifiers></stage4>
</opencv_storage>
