<?xml version="1.0"?>
<opencv_storage>
<stage5>
  <maxWeakCount>8</maxWeakCount>
  <stageThreshold>-1.0863445997238159e+00</stageThreshold>
  <weakClassifiers>
    <_>
      <internalNodes>
        0 -1 45999 7.5681261718273163e-02</internalNodes>
      <leafValues>
        -6.0515022277832031e-01 5.1605993509292603e-01</leafValues></_>
    <_>
      <internalNodes>
        0 -1 72945 1.7284632485825568e-04</internalNodes>
      <leafValues>
        -7.3796159029006958e-01 2.8233423829078674e-01</leafValues></_>
    <_>
      <internalNodes>
        0 -1 72945 2.0173913799226284e-03</internalNodes>
      <leafValues>
        2.5205197930335999e-01 -9.2174828052520752e-01</leafValues></_>
    <_>
      <internalNodes>
        0 -1 56505 -3.9315479807555676e-03</internalNodes>
      <leafValues>
        2.1668241918087006e-01 -7.5789988040924072e-01</leafValues></_>
    <_>
      <internalNodes>
        0 -1 70794 4.2035462683998048e-05</internalNodes>
      <leafValues>
        -8.0321574211120605e-01 1.5706662833690643e-01</leafValues></_>
    <_>
      <internalNodes>
        0 -1 68233 -2.4619130999781191e-04</internalNodes>
      <leafValues>
        -5.5485886335372925e-01 2.6954191923141479e-01</leafValues></_>
    <_>
      <internalNodes>
        0 -1 49898 -3.6544953472912312e-03</internalNodes>
      <leafValues>
        4.5805731415748596e-01 -3.5633099079132080e-01</leafValues></_>
    <_>
      <internalNodes>
        0 -1 30364 3.8457978516817093e-02</internalNodes>
      <leafValues>
        -2.7223223447799683e-01 5.7709580659866333e-01</leafValues></_></weakClassifiers></stage5>
</opencv_storage>
