<?xml version="1.0"?>
<opencv_storage>
<stage3>
  <maxWeakCount>7</maxWeakCount>
  <stageThreshold>-1.2308791875839233e+00</stageThreshold>
  <weakClassifiers>
    <_>
      <internalNodes>
        0 -1 50676 8.2766681909561157e-02</internalNodes>
      <leafValues>
        -4.0866288542747498e-01 7.0712912082672119e-01</leafValues></_>
    <_>
      <internalNodes>
        0 -1 70190 2.8879316523671150e-03</internalNodes>
      <leafValues>
        3.1369802355766296e-01 -9.3418151140213013e-01</leafValues></_>
    <_>
      <internalNodes>
        0 -1 29833 2.3406410589814186e-02</internalNodes>
      <leafValues>
        -3.9012113213539124e-01 5.7170838117599487e-01</leafValues></_>
    <_>
      <internalNodes>
        0 -1 70693 2.0913040498271585e-04</internalNodes>
      <leafValues>
        -7.3694169521331787e-01 3.3097898960113525e-01</leafValues></_>
    <_>
      <internalNodes>
        0 -1 51323 1.9119020551443100e-02</internalNodes>
      <leafValues>
        -3.9030790328979492e-01 6.3088548183441162e-01</leafValues></_>
    <_>
      <internalNodes>
        0 -1 52509 1.2276084721088409e-01</internalNodes>
      <leafValues>
        -3.1236952543258667e-01 6.3190013170242310e-01</leafValues></_>
    <_>
      <internalNodes>
        0 -1 24602 3.6423150449991226e-02</internalNodes>
      <leafValues>
        -2.5044375658035278e-01 8.4426432847976685e-01</leafValues></_></weakClassifiers></stage3>
</opencv_storage>
