<?xml version="1.0"?>
<opencv_storage>
<stage2>
  <maxWeakCount>7</maxWeakCount>
  <stageThreshold>-1.0653182268142700e+00</stageThreshold>
  <weakClassifiers>
    <_>
      <internalNodes>
        0 -1 51495 5.8207295835018158e-02</internalNodes>
      <leafValues>
        -6.4221364259719849e-01 6.0393047332763672e-01</leafValues></_>
    <_>
      <internalNodes>
        0 -1 69980 1.3018075842410326e-03</internalNodes>
      <leafValues>
        3.4336704015731812e-01 -8.9380365610122681e-01</leafValues></_>
    <_>
      <internalNodes>
        0 -1 9896 8.4050953388214111e-02</internalNodes>
      <leafValues>
        -5.0029861927032471e-01 4.5685321092605591e-01</leafValues></_>
    <_>
      <internalNodes>
        0 -1 67642 -9.3151826877146959e-04</internalNodes>
      <leafValues>
        -9.0845459699630737e-01 2.1360650658607483e-01</leafValues></_>
    <_>
      <internalNodes>
        0 -1 70451 2.2511690622195601e-04</internalNodes>
      <leafValues>
        -8.5014343261718750e-01 2.6194271445274353e-01</leafValues></_>
    <_>
      <internalNodes>
        0 -1 70308 2.2154692560434341e-03</internalNodes>
      <leafValues>
        1.9805328547954559e-01 -7.5006300210952759e-01</leafValues></_>
    <_>
      <internalNodes>
        0 -1 72823 1.7709960229694843e-04</internalNodes>
      <leafValues>
        1.7231068015098572e-01 -9.2322838306427002e-01</leafValues></_></weakClassifiers></stage2>
</opencv_storage>
